digraph Tree {
node [shape=box, style="filled, rounded", color="black", fontname=helvetica] ;
edge [fontname=helvetica] ;
0 [label=<FREQUENCY_STATUS_97NK &le; 1.0<br/>gini = 0.5<br/>samples = 19836<br/>value = [9930, 9906]<br/>class = T>, fillcolor="#ffffff"] ;
1 [label=<RECENT_RESPONSE_COUNT &le; 1.002<br/>gini = 0.416<br/>samples = 6954<br/>value = [4898, 2056]<br/>class = T>, fillcolor="#f0b68c"] ;
0 -> 1 [labeldistance=2.5, labelangle=45, headlabel="True"] ;
13 [label=<INCOME_GROUP &le; 1.025<br/>gini = 0.353<br/>samples = 3042<br/>value = [2346, 696]<br/>class = T>, fillcolor="#eda674"] ;
1 -> 13 ;
61 [label=<gini = 0.175<br/>samples = 237<br/>value = [214, 23]<br/>class = T>, fillcolor="#e88f4e"] ;
13 -> 61 ;
62 [label=<RECENT_CARD_RESPONSE_COUNT &le; 0.007<br/>gini = 0.365<br/>samples = 2805<br/>value = [2132, 673]<br/>class = T>, fillcolor="#eda978"] ;
13 -> 62 ;
63 [label=<gini = 0.313<br/>samples = 1213<br/>value = [977, 236]<br/>class = T>, fillcolor="#eb9f69"] ;
62 -> 63 ;
64 [label=<RECENT_CARD_RESPONSE_COUNT &le; 1.0<br/>gini = 0.398<br/>samples = 1592<br/>value = [1155, 437]<br/>class = T>, fillcolor="#efb184"] ;
62 -> 64 ;
65 [label=<gini = 0.0<br/>samples = 65<br/>value = [0, 65]<br/>class = A>, fillcolor="#399de5"] ;
64 -> 65 ;
66 [label=<DONOR_GENDER_e &le; 0.997<br/>gini = 0.369<br/>samples = 1527<br/>value = [1155, 372]<br/>class = T>, fillcolor="#edaa79"] ;
64 -> 66 ;
83 [label=<DONOR_GENDER_e &le; 0.011<br/>gini = 0.409<br/>samples = 844<br/>value = [602, 242]<br/>class = T>, fillcolor="#efb489"] ;
66 -> 83 ;
85 [label=<MEDIAN_HOME_VALUE &le; 823.5<br/>gini = 0.37<br/>samples = 797<br/>value = [602, 195]<br/>class = T>, fillcolor="#edaa79"] ;
83 -> 85 ;
87 [label=<gini = 0.295<br/>samples = 400<br/>value = [328, 72]<br/>class = T>, fillcolor="#eb9d64"] ;
85 -> 87 ;
88 [label=<gini = 0.428<br/>samples = 397<br/>value = [274, 123]<br/>class = T>, fillcolor="#f1ba92"] ;
85 -> 88 ;
86 [label=<gini = 0.0<br/>samples = 47<br/>value = [0, 47]<br/>class = A>, fillcolor="#399de5"] ;
83 -> 86 ;
84 [label=<gini = 0.308<br/>samples = 683<br/>value = [553, 130]<br/>class = T>, fillcolor="#eb9f68"] ;
66 -> 84 ;
14 [label=<RECENT_RESPONSE_COUNT &le; 1.999<br/>gini = 0.454<br/>samples = 3912<br/>value = [2552, 1360]<br/>class = T>, fillcolor="#f3c4a3"] ;
1 -> 14 ;
15 [label=<gini = 0.0<br/>samples = 374<br/>value = [0, 374]<br/>class = A>, fillcolor="#399de5"] ;
14 -> 15 ;
16 [label=<PEP_STAR &le; 0.0<br/>gini = 0.402<br/>samples = 3538<br/>value = [2552, 986]<br/>class = T>, fillcolor="#efb286"] ;
14 -> 16 ;
29 [label=<MEDIAN_HOME_VALUE &le; 2659.0<br/>gini = 0.354<br/>samples = 1860<br/>value = [1433, 427]<br/>class = T>, fillcolor="#eda774"] ;
16 -> 29 ;
57 [label=<gini = 0.336<br/>samples = 1691<br/>value = [1329, 362]<br/>class = T>, fillcolor="#eca36f"] ;
29 -> 57 ;
58 [label=<NUMBER_PROM_12 &le; 14.493<br/>gini = 0.473<br/>samples = 169<br/>value = [104, 65]<br/>class = T>, fillcolor="#f5d0b5"] ;
29 -> 58 ;
59 [label=<MEDIAN_HOUSEHOLD_INCOME &le; 609.5<br/>gini = 0.424<br/>samples = 141<br/>value = [98, 43]<br/>class = T>, fillcolor="#f0b890"] ;
58 -> 59 ;
89 [label=<gini = 0.278<br/>samples = 78<br/>value = [65, 13]<br/>class = T>, fillcolor="#ea9a61"] ;
59 -> 89 ;
90 [label=<gini = 0.499<br/>samples = 63<br/>value = [33, 30]<br/>class = T>, fillcolor="#fdf4ed"] ;
59 -> 90 ;
60 [label=<gini = 0.337<br/>samples = 28<br/>value = [6, 22]<br/>class = A>, fillcolor="#6fb8ec"] ;
58 -> 60 ;
30 [label=<PEP_STAR &le; 0.999<br/>gini = 0.444<br/>samples = 1678<br/>value = [1119, 559]<br/>class = T>, fillcolor="#f2c09c"] ;
16 -> 30 ;
31 [label=<gini = 0.0<br/>samples = 127<br/>value = [0, 127]<br/>class = A>, fillcolor="#399de5"] ;
30 -> 31 ;
32 [label=<DONOR_GENDER_e &le; 0.005<br/>gini = 0.402<br/>samples = 1551<br/>value = [1119, 432]<br/>class = T>, fillcolor="#efb285"] ;
30 -> 32 ;
69 [label=<gini = 0.356<br/>samples = 863<br/>value = [663, 200]<br/>class = T>, fillcolor="#eda775"] ;
32 -> 69 ;
70 [label=<DONOR_GENDER_e &le; 0.989<br/>gini = 0.447<br/>samples = 688<br/>value = [456, 232]<br/>class = T>, fillcolor="#f2c19e"] ;
32 -> 70 ;
71 [label=<gini = 0.0<br/>samples = 54<br/>value = [0, 54]<br/>class = A>, fillcolor="#399de5"] ;
70 -> 71 ;
72 [label=<LIFETIME_GIFT_AMOUNT &le; 42.5<br/>gini = 0.404<br/>samples = 634<br/>value = [456, 178]<br/>class = T>, fillcolor="#efb286"] ;
70 -> 72 ;
91 [label=<gini = 0.298<br/>samples = 11<br/>value = [2, 9]<br/>class = A>, fillcolor="#65b3eb"] ;
72 -> 91 ;
92 [label=<gini = 0.395<br/>samples = 623<br/>value = [454, 169]<br/>class = T>, fillcolor="#efb083"] ;
72 -> 92 ;
2 [label=<FREQUENCY_STATUS_97NK &le; 2.0<br/>gini = 0.476<br/>samples = 12882<br/>value = [5032, 7850]<br/>class = A>, fillcolor="#b8dcf6"] ;
0 -> 2 [labeldistance=2.5, labelangle=-45, headlabel="False"] ;
3 [label=<gini = 0.0<br/>samples = 1840<br/>value = [0, 1840]<br/>class = A>, fillcolor="#399de5"] ;
2 -> 3 ;
4 [label=<FREQUENCY_STATUS_97NK &le; 2.0<br/>gini = 0.496<br/>samples = 11042<br/>value = [5032, 6010]<br/>class = A>, fillcolor="#dfeffb"] ;
2 -> 4 ;
5 [label=<FILE_CARD_GIFT &le; 3.018<br/>gini = 0.437<br/>samples = 3259<br/>value = [2206, 1053]<br/>class = T>, fillcolor="#f1bd98"] ;
4 -> 5 ;
33 [label=<gini = 0.383<br/>samples = 1292<br/>value = [958, 334]<br/>class = T>, fillcolor="#eead7e"] ;
5 -> 33 ;
34 [label=<FILE_CARD_GIFT &le; 3.993<br/>gini = 0.464<br/>samples = 1967<br/>value = [1248, 719]<br/>class = T>, fillcolor="#f4caab"] ;
5 -> 34 ;
35 [label=<gini = 0.0<br/>samples = 30<br/>value = [0, 30]<br/>class = A>, fillcolor="#399de5"] ;
34 -> 35 ;
36 [label=<RECENCY_STATUS_96NK_e &le; 3.992<br/>gini = 0.458<br/>samples = 1937<br/>value = [1248, 689]<br/>class = T>, fillcolor="#f3c7a6"] ;
34 -> 36 ;
45 [label=<RECENCY_STATUS_96NK_e &le; 0.008<br/>gini = 0.483<br/>samples = 942<br/>value = [558, 384]<br/>class = T>, fillcolor="#f7d8c1"] ;
36 -> 45 ;
47 [label=<gini = 0.43<br/>samples = 788<br/>value = [541, 247]<br/>class = T>, fillcolor="#f1bb93"] ;
45 -> 47 ;
48 [label=<CARD_PROM_12 &le; 3.016<br/>gini = 0.196<br/>samples = 154<br/>value = [17, 137]<br/>class = A>, fillcolor="#52a9e8"] ;
45 -> 48 ;
55 [label=<gini = 0.488<br/>samples = 19<br/>value = [11, 8]<br/>class = T>, fillcolor="#f8ddc9"] ;
48 -> 55 ;
56 [label=<gini = 0.085<br/>samples = 135<br/>value = [6, 129]<br/>class = A>, fillcolor="#42a2e6"] ;
48 -> 56 ;
46 [label=<gini = 0.425<br/>samples = 995<br/>value = [690, 305]<br/>class = T>, fillcolor="#f0b991"] ;
36 -> 46 ;
6 [label=<FREQUENCY_STATUS_97NK &le; 3.0<br/>gini = 0.463<br/>samples = 7783<br/>value = [2826, 4957]<br/>class = A>, fillcolor="#aad5f4"] ;
4 -> 6 ;
7 [label=<gini = 0.0<br/>samples = 1758<br/>value = [0, 1758]<br/>class = A>, fillcolor="#399de5"] ;
6 -> 7 ;
8 [label=<FREQUENCY_STATUS_97NK &le; 3.0<br/>gini = 0.498<br/>samples = 6025<br/>value = [2826, 3199]<br/>class = A>, fillcolor="#e8f4fc"] ;
6 -> 8 ;
9 [label=<FILE_CARD_GIFT &le; 2.012<br/>gini = 0.469<br/>samples = 2591<br/>value = [1616, 975]<br/>class = T>, fillcolor="#f5cdb0"] ;
8 -> 9 ;
17 [label=<gini = 0.368<br/>samples = 584<br/>value = [442, 142]<br/>class = T>, fillcolor="#eda979"] ;
9 -> 17 ;
18 [label=<CARD_PROM_12 &le; 6.0<br/>gini = 0.486<br/>samples = 2007<br/>value = [1174, 833]<br/>class = T>, fillcolor="#f7dac5"] ;
9 -> 18 ;
19 [label=<CARD_PROM_12 &le; 5.002<br/>gini = 0.499<br/>samples = 651<br/>value = [308, 343]<br/>class = A>, fillcolor="#ebf5fc"] ;
18 -> 19 ;
21 [label=<RECENT_RESPONSE_PROP &le; 0.229<br/>gini = 0.492<br/>samples = 547<br/>value = [308, 239]<br/>class = T>, fillcolor="#f9e3d3"] ;
19 -> 21 ;
37 [label=<gini = 0.385<br/>samples = 142<br/>value = [105, 37]<br/>class = T>, fillcolor="#eead7f"] ;
21 -> 37 ;
38 [label=<RECENT_RESPONSE_COUNT &le; 5.883<br/>gini = 0.5<br/>samples = 405<br/>value = [203, 202]<br/>class = T>, fillcolor="#fffefe"] ;
21 -> 38 ;
75 [label=<RECENT_AVG_GIFT_AMT &le; 11.585<br/>gini = 0.493<br/>samples = 287<br/>value = [126, 161]<br/>class = A>, fillcolor="#d4eaf9"] ;
38 -> 75 ;
81 [label=<gini = 0.478<br/>samples = 250<br/>value = [99, 151]<br/>class = A>, fillcolor="#bbddf6"] ;
75 -> 81 ;
82 [label=<gini = 0.394<br/>samples = 37<br/>value = [27, 10]<br/>class = T>, fillcolor="#efb082"] ;
75 -> 82 ;
76 [label=<gini = 0.453<br/>samples = 118<br/>value = [77, 41]<br/>class = T>, fillcolor="#f3c4a2"] ;
38 -> 76 ;
22 [label=<gini = 0.0<br/>samples = 104<br/>value = [0, 104]<br/>class = A>, fillcolor="#399de5"] ;
19 -> 22 ;
20 [label=<FILE_CARD_GIFT &le; 2.99<br/>gini = 0.462<br/>samples = 1356<br/>value = [866, 490]<br/>class = T>, fillcolor="#f4c8a9"] ;
18 -> 20 ;
49 [label=<gini = 0.0<br/>samples = 12<br/>value = [0, 12]<br/>class = A>, fillcolor="#399de5"] ;
20 -> 49 ;
50 [label=<PER_CAPITA_INCOME &le; 12608.5<br/>gini = 0.458<br/>samples = 1344<br/>value = [866, 478]<br/>class = T>, fillcolor="#f3c7a6"] ;
20 -> 50 ;
51 [label=<LIFETIME_PROM &le; 81.5<br/>gini = 0.399<br/>samples = 490<br/>value = [355, 135]<br/>class = T>, fillcolor="#efb184"] ;
50 -> 51 ;
73 [label=<gini = 0.374<br/>samples = 453<br/>value = [340, 113]<br/>class = T>, fillcolor="#eeab7b"] ;
51 -> 73 ;
74 [label=<PCT_ATTRIBUTE2 &le; 36.5<br/>gini = 0.482<br/>samples = 37<br/>value = [15, 22]<br/>class = A>, fillcolor="#c0e0f7"] ;
51 -> 74 ;
79 [label=<gini = 0.366<br/>samples = 29<br/>value = [7, 22]<br/>class = A>, fillcolor="#78bced"] ;
74 -> 79 ;
80 [label=<gini = 0.0<br/>samples = 8<br/>value = [8, 0]<br/>class = T>, fillcolor="#e58139"] ;
74 -> 80 ;
52 [label=<URBANICITY_e &le; 1.995<br/>gini = 0.481<br/>samples = 854<br/>value = [511, 343]<br/>class = T>, fillcolor="#f6d6be"] ;
50 -> 52 ;
53 [label=<URBANICITY_e &le; 1.013<br/>gini = 0.499<br/>samples = 293<br/>value = [139, 154]<br/>class = A>, fillcolor="#ecf5fc"] ;
52 -> 53 ;
67 [label=<gini = 0.5<br/>samples = 275<br/>value = [139, 136]<br/>class = T>, fillcolor="#fefcfb"] ;
53 -> 67 ;
68 [label=<gini = 0.0<br/>samples = 18<br/>value = [0, 18]<br/>class = A>, fillcolor="#399de5"] ;
53 -> 68 ;
54 [label=<RECENT_AVG_GIFT_AMT &le; 7.73<br/>gini = 0.447<br/>samples = 561<br/>value = [372, 189]<br/>class = T>, fillcolor="#f2c19e"] ;
52 -> 54 ;
77 [label=<gini = 0.5<br/>samples = 109<br/>value = [54, 55]<br/>class = A>, fillcolor="#fbfdff"] ;
54 -> 77 ;
78 [label=<gini = 0.417<br/>samples = 452<br/>value = [318, 134]<br/>class = T>, fillcolor="#f0b68c"] ;
54 -> 78 ;
10 [label=<FREQUENCY_STATUS_97NK &le; 4.0<br/>gini = 0.456<br/>samples = 3434<br/>value = [1210, 2224]<br/>class = A>, fillcolor="#a5d2f3"] ;
8 -> 10 ;
11 [label=<gini = 0.0<br/>samples = 1284<br/>value = [0, 1284]<br/>class = A>, fillcolor="#399de5"] ;
10 -> 11 ;
12 [label=<CARD_PROM_12 &le; 5.986<br/>gini = 0.492<br/>samples = 2150<br/>value = [1210, 940]<br/>class = T>, fillcolor="#f9e3d3"] ;
10 -> 12 ;
23 [label=<CARD_PROM_12 &le; 5.01<br/>gini = 0.488<br/>samples = 442<br/>value = [187, 255]<br/>class = A>, fillcolor="#cae5f8"] ;
12 -> 23 ;
25 [label=<PCT_OWNER_OCCUPIED &le; 61.635<br/>gini = 0.5<br/>samples = 381<br/>value = [187, 194]<br/>class = A>, fillcolor="#f8fbfe"] ;
23 -> 25 ;
39 [label=<gini = 0.426<br/>samples = 117<br/>value = [36, 81]<br/>class = A>, fillcolor="#91c9f1"] ;
25 -> 39 ;
40 [label=<gini = 0.49<br/>samples = 264<br/>value = [151, 113]<br/>class = T>, fillcolor="#f8dfcd"] ;
25 -> 40 ;
26 [label=<gini = 0.0<br/>samples = 61<br/>value = [0, 61]<br/>class = A>, fillcolor="#399de5"] ;
23 -> 26 ;
24 [label=<MONTHS_SINCE_LAST_GIFT &le; 14.981<br/>gini = 0.48<br/>samples = 1708<br/>value = [1023, 685]<br/>class = T>, fillcolor="#f6d5be"] ;
12 -> 24 ;
27 [label=<gini = 0.434<br/>samples = 129<br/>value = [41, 88]<br/>class = A>, fillcolor="#95cbf1"] ;
24 -> 27 ;
28 [label=<MONTHS_SINCE_LAST_GIFT &le; 17.973<br/>gini = 0.47<br/>samples = 1579<br/>value = [982, 597]<br/>class = T>, fillcolor="#f5ceb1"] ;
24 -> 28 ;
41 [label=<MONTHS_SINCE_LAST_GIFT &le; 17.022<br/>gini = 0.488<br/>samples = 983<br/>value = [568, 415]<br/>class = T>, fillcolor="#f8ddca"] ;
28 -> 41 ;
43 [label=<URBANICITY_e &le; 3.936<br/>gini = 0.479<br/>samples = 943<br/>value = [568, 375]<br/>class = T>, fillcolor="#f6d4bc"] ;
41 -> 43 ;
93 [label=<PER_CAPITA_INCOME &le; 18450.0<br/>gini = 0.486<br/>samples = 858<br/>value = [501, 357]<br/>class = T>, fillcolor="#f8dbc6"] ;
43 -> 93 ;
95 [label=<LAST_GIFT_AMT &le; 15.5<br/>gini = 0.473<br/>samples = 691<br/>value = [426, 265]<br/>class = T>, fillcolor="#f5cfb4"] ;
93 -> 95 ;
97 [label=<gini = 0.481<br/>samples = 637<br/>value = [380, 257]<br/>class = T>, fillcolor="#f7d6bf"] ;
95 -> 97 ;
98 [label=<gini = 0.252<br/>samples = 54<br/>value = [46, 8]<br/>class = T>, fillcolor="#ea975b"] ;
95 -> 98 ;
96 [label=<gini = 0.495<br/>samples = 167<br/>value = [75, 92]<br/>class = A>, fillcolor="#daedfa"] ;
93 -> 96 ;
94 [label=<gini = 0.334<br/>samples = 85<br/>value = [67, 18]<br/>class = T>, fillcolor="#eca36e"] ;
43 -> 94 ;
44 [label=<gini = 0.0<br/>samples = 40<br/>value = [0, 40]<br/>class = A>, fillcolor="#399de5"] ;
41 -> 44 ;
42 [label=<gini = 0.424<br/>samples = 596<br/>value = [414, 182]<br/>class = T>, fillcolor="#f0b890"] ;
28 -> 42 ;
}